booster[0]:
0:[f643<0.381404757] yes=1,no=2,missing=1
	1:[f623<0.0470873043] yes=3,no=4,missing=3
		3:[f1064<0.143545642] yes=7,no=8,missing=7
			7:[f492<0.0113040805] yes=13,no=14,missing=13
				13:leaf=0.0180000011
				14:leaf=0.124615394
			8:leaf=-0.032727275
		4:[f394<0.144647211] yes=9,no=10,missing=9
			9:[f264<0.327109694] yes=15,no=16,missing=15
				15:[f704<0.209713787] yes=19,no=20,missing=19
					19:[f1534<0.0715692863] yes=25,no=26,missing=25
						25:leaf=-0.0942857265
						26:leaf=0.0818181857
					20:[f1165<0.0764548928] yes=27,no=28,missing=27
						27:leaf=-0.0200000014
						28:[f1301<0.231604785] yes=31,no=32,missing=31
							31:[f1275<0.260073006] yes=33,no=34,missing=33
								33:leaf=-0.168000013
								34:leaf=-0.0648000017
							32:leaf=-0
				16:[f454<0.154473573] yes=21,no=22,missing=21
					21:leaf=-0.0600000024
					22:leaf=0.0900000036
			10:[f265<0.202263713] yes=17,no=18,missing=17
				17:leaf=0.0987096801
				18:[f148<0.24213475] yes=23,no=24,missing=23
					23:[f33<0.185732767] yes=29,no=30,missing=29
						29:leaf=-0.115384623
						30:leaf=0.00857142918
					24:leaf=0.0600000024
	2:[f508<0.0623514503] yes=5,no=6,missing=5
		5:leaf=-0.042857144
		6:[f1368<0.237840459] yes=11,no=12,missing=11
			11:leaf=0.161379322
			12:leaf=0.0180000011
booster[1]:
0:[f143<0.396294534] yes=1,no=2,missing=1
	1:[f906<0.147839963] yes=3,no=4,missing=3
		3:[f1195<0.0343531668] yes=7,no=8,missing=7
			7:[f276<0.0599870943] yes=13,no=14,missing=13
				13:leaf=-0.0422030725
				14:leaf=0.0989690721
			8:[f1177<0.345164895] yes=15,no=16,missing=15
				15:[f1270<0.296773255] yes=21,no=22,missing=21
					21:[f1275<0.292314947] yes=27,no=28,missing=27
						27:[f225<0.0563208833] yes=31,no=32,missing=31
							31:leaf=-0.0336744599
							32:[f17<0.366437167] yes=33,no=34,missing=33
								33:leaf=-0.160402074
								34:leaf=-0.0391575098
						28:leaf=-0.0156737324
					22:[f401<0.0854526162] yes=29,no=30,missing=29
						29:leaf=-0.0886482671
						30:leaf=0.0554394238
				16:leaf=0.0409161262
		4:[f309<0.164312497] yes=9,no=10,missing=9
			9:[f673<0.107761182] yes=17,no=18,missing=17
				17:leaf=0.0735918209
				18:leaf=-0.0988870859
			10:[f289<0.0790125579] yes=19,no=20,missing=19
				19:leaf=-0.0257836506
				20:[f336<0.15591678] yes=25,no=26,missing=25
					25:leaf=0.0376894549
					26:leaf=0.135618806
	2:[f1155<0.362838238] yes=5,no=6,missing=5
		5:[f503<0.126867443] yes=11,no=12,missing=11
			11:leaf=-0.0881844237
			12:leaf=0.0867044106
		6:leaf=0.150788546
booster[2]:
0:[f647<0.502533197] yes=1,no=2,missing=1
	1:[f277<0.24303782] yes=3,no=4,missing=3
		3:[f1211<0.0771508515] yes=7,no=8,missing=7
			7:[f1041<0.209588826] yes=11,no=12,missing=11
				11:[f387<0.0702366382] yes=17,no=18,missing=17
					17:leaf=0.00392750185
					18:leaf=0.113981754
				12:[f1208<0.109843314] yes=19,no=20,missing=19
					19:leaf=0.0240926463
					20:leaf=-0.096174933
			8:[f150<0.251608074] yes=13,no=14,missing=13
				13:[f703<0.230806202] yes=21,no=22,missing=21
					21:[f519<0.0885683149] yes=25,no=26,missing=25
						25:leaf=-0.0344948024
						26:[f1450<0.125224799] yes=33,no=34,missing=33
							33:leaf=-0.14912796
							34:leaf=-0.0384518243
					22:[f979<0.111596406] yes=27,no=28,missing=27
						27:leaf=0.0700196773
						28:leaf=-0.0939846858
				14:[f576<0.429139495] yes=23,no=24,missing=23
					23:[f1243<0.249383718] yes=29,no=30,missing=29
						29:[f1418<0.169441968] yes=35,no=36,missing=35
							35:leaf=-0.124676615
							36:leaf=0.00680693937
						30:leaf=0.0572571978
					24:[f1120<0.141946346] yes=31,no=32,missing=31
						31:leaf=-0.0405172668
						32:leaf=0.11245463
		4:[f918<0.0816508383] yes=9,no=10,missing=9
			9:leaf=-0.0349816531
			10:[f568<0.147313327] yes=15,no=16,missing=15
				15:leaf=0.0399076752
				16:leaf=0.130120382
	2:[f454<0.143410802] yes=5,no=6,missing=5
		5:leaf=0.0492067933
		6:leaf=0.141668081
booster[3]:
0:[f131<0.373289943] yes=1,no=2,missing=1
	1:[f1123<0.0649782866] yes=3,no=4,missing=3
		3:[f497<0.0399761237] yes=7,no=8,missing=7
			7:leaf=-0.010544423
			8:[f852<0.087082386] yes=13,no=14,missing=13
				13:leaf=0.0267303642
				14:leaf=0.13051407
		4:[f906<0.114576004] yes=9,no=10,missing=9
			9:[f1186<0.0624353103] yes=15,no=16,missing=15
				15:leaf=0.0243666302
				16:[f1391<0.0178441256] yes=19,no=20,missing=19
					19:leaf=0.00408319617
					20:[f1314<0.19523184] yes=25,no=26,missing=25
						25:[f357<0.0527767688] yes=33,no=34,missing=33
							33:leaf=-0.0522345379
							34:[f1062<0.306607872] yes=35,no=36,missing=35
								35:leaf=-0.144479781
								36:leaf=-0.0558615737
						26:leaf=-0.019877024
			10:[f817<0.177973986] yes=17,no=18,missing=17
				17:[f328<0.164765239] yes=21,no=22,missing=21
					21:[f153<0.233619601] yes=27,no=28,missing=27
						27:leaf=0.104544312
						28:leaf=-0.0517636314
					22:[f469<0.123746932] yes=29,no=30,missing=29
						29:leaf=-0.129950151
						30:leaf=-0.0194378495
				18:[f855<0.154297233] yes=23,no=24,missing=23
					23:leaf=0.102903031
					24:[f218<0.214250296] yes=31,no=32,missing=31
						31:leaf=0.0610954948
						32:leaf=-0.075391762
	2:[f1423<0.136370003] yes=5,no=6,missing=5
		5:[f1098<0.425505221] yes=11,no=12,missing=11
			11:leaf=0.0587121882
			12:leaf=-0.0632361397
		6:leaf=0.135151014
booster[4]:
0:[f643<0.361147702] yes=1,no=2,missing=1
	1:[f1013<0.141232118] yes=3,no=4,missing=3
		3:[f1192<0.043571502] yes=7,no=8,missing=7
			7:[f1277<0.0768073797] yes=15,no=16,missing=15
				15:leaf=0.0852468088
				16:leaf=-0.0461228602
			8:[f378<0.207984969] yes=17,no=18,missing=17
				17:[f733<0.300848097] yes=23,no=24,missing=23
					23:[f253<0.0431156233] yes=29,no=30,missing=29
						29:leaf=-0.00639123144
						30:[f704<0.168381721] yes=31,no=32,missing=31
							31:leaf=-0.0155544905
							32:[f469<0.179244012] yes=33,no=34,missing=33
								33:leaf=-0.140940472
								34:leaf=-0.0433052927
					24:leaf=0.0305702165
				18:[f1058<0.152302802] yes=25,no=26,missing=25
					25:leaf=0.0797833204
					26:leaf=-0.0787944719
		4:[f165<0.177355886] yes=9,no=10,missing=9
			9:[f337<0.178445846] yes=19,no=20,missing=19
				19:[f829<0.170511529] yes=27,no=28,missing=27
					27:leaf=-0.0217170585
					28:leaf=-0.105708681
				20:leaf=0.0436316282
			10:[f1173<0.231715858] yes=21,no=22,missing=21
				21:leaf=-0.00358012319
				22:leaf=0.118287109
	2:[f271<0.201825708] yes=5,no=6,missing=5
		5:[f79<0.214868695] yes=11,no=12,missing=11
			11:leaf=0.0751767606
			12:leaf=-0.0721244887
		6:[f1352<0.367407978] yes=13,no=14,missing=13
			13:leaf=0.134190887
			14:leaf=0.0485366024
booster[5]:
0:[f643<0.393027931] yes=1,no=2,missing=1
	1:[f704<0.205147594] yes=3,no=4,missing=3
		3:[f160<0.12473014] yes=7,no=8,missing=7
			7:[f131<0.0520715863] yes=13,no=14,missing=13
				13:leaf=0.0165025573
				14:leaf=0.118523143
			8:leaf=-0.0376141816
		4:[f506<0.142677709] yes=9,no=10,missing=9
			9:[f447<0.165009707] yes=15,no=16,missing=15
				15:[f129<0.322527021] yes=19,no=20,missing=19
					19:[f1192<0.0338046998] yes=21,no=22,missing=21
						21:leaf=0.0110481391
						22:[f266<0.304380059] yes=25,no=26,missing=25
							25:[f179<0.292564154] yes=27,no=28,missing=27
								27:[f1296<0.217000723] yes=29,no=30,missing=29
									29:leaf=-0.135939002
									30:leaf=-0.0292755291
								28:leaf=-0.00699975714
							26:leaf=3.77563265e-05
					20:[f965<0.168896511] yes=23,no=24,missing=23
						23:leaf=-0.077906616
						24:leaf=0.05457706
				16:leaf=0.0238723084
			10:[f573<0.272998095] yes=17,no=18,missing=17
				17:leaf=0.0852727517
				18:leaf=-0.042828422
	2:[f399<0.119508579] yes=5,no=6,missing=5
		5:[f1487<0.130980253] yes=11,no=12,missing=11
			11:leaf=0.0706014335
			12:leaf=-0.0716537088
		6:leaf=0.120848157
booster[6]:
0:[f131<0.393671572] yes=1,no=2,missing=1
	1:[f559<0.0543211326] yes=3,no=4,missing=3
		3:[f257<0.0917600095] yes=7,no=8,missing=7
			7:leaf=-0.0351539813
			8:[f134<0.392446548] yes=13,no=14,missing=13
				13:leaf=0.121781446
				14:leaf=0.0353064872
		4:[f610<0.0739114508] yes=9,no=10,missing=9
			9:[f698<0.173064172] yes=15,no=16,missing=15
				15:leaf=-0.00923036411
				16:leaf=0.116367191
			10:[f877<0.192898363] yes=17,no=18,missing=17
				17:[f703<0.210689873] yes=19,no=20,missing=19
					19:[f869<0.0431485996] yes=23,no=24,missing=23
						23:leaf=0.0241577197
						24:[f279<0.220720887] yes=27,no=28,missing=27
							27:[f211<0.059768945] yes=31,no=32,missing=31
								31:leaf=-0.029809542
								32:[f1243<0.0689727664] yes=33,no=34,missing=33
									33:leaf=-0.0421384498
									34:leaf=-0.131632492
							28:leaf=-0.0118072117
					20:[f277<0.189628527] yes=25,no=26,missing=25
						25:[f299<0.0920768082] yes=29,no=30,missing=29
							29:leaf=0.0159828365
							30:leaf=-0.0948603377
						26:leaf=0.060950011
				18:[f394<0.124812588] yes=21,no=22,missing=21
					21:leaf=-0.0411047824
					22:leaf=0.0925360397
	2:[f1018<0.0786990374] yes=5,no=6,missing=5
		5:leaf=-0.00304727932
		6:[f1267<0.216596082] yes=11,no=12,missing=11
			11:leaf=0.0341919698
			12:leaf=0.122536615
booster[7]:
0:[f131<0.3954404] yes=1,no=2,missing=1
	1:[f1017<0.142943323] yes=3,no=4,missing=3
		3:[f1324<0.0259483065] yes=7,no=8,missing=7
			7:[f1301<0.181567013] yes=13,no=14,missing=13
				13:[f721<0.178857654] yes=19,no=20,missing=19
					19:leaf=0.0191246588
					20:leaf=0.115674064
				14:leaf=-0.0380487442
			8:[f704<0.166050211] yes=15,no=16,missing=15
				15:leaf=0.0560186729
				16:[f442<0.170377016] yes=21,no=22,missing=21
					21:[f587<0.141069114] yes=23,no=24,missing=23
						23:[f709<0.262627453] yes=25,no=26,missing=25
							25:leaf=-0.0671422407
							26:leaf=0.076989688
						24:[f243<0.266191423] yes=27,no=28,missing=27
							27:[f335<0.337854922] yes=29,no=30,missing=29
								29:[f226<0.0492071584] yes=31,no=32,missing=31
									31:leaf=-0.0222370755
									32:[f25<0.388413012] yes=33,no=34,missing=33
										33:[f586<0.210322663] yes=35,no=36,missing=35
											35:leaf=-0.0393131301
											36:leaf=-0.130173355
										34:leaf=-0.0280517358
								30:leaf=-0.0195559766
							28:leaf=0.0176855866
					22:leaf=0.0355199873
		4:[f501<0.10589122] yes=9,no=10,missing=9
			9:leaf=-0.0332904272
			10:[f577<0.308404118] yes=17,no=18,missing=17
				17:leaf=0.0160591621
				18:leaf=0.117000803
	2:[f715<0.423861086] yes=5,no=6,missing=5
		5:[f31<0.318838954] yes=11,no=12,missing=11
			11:leaf=0.119286679
			12:leaf=0.0363256223
		6:leaf=0.0053030937
booster[8]:
0:[f131<0.393671572] yes=1,no=2,missing=1
	1:[f789<0.234212875] yes=3,no=4,missing=3
		3:[f1107<0.0893016383] yes=7,no=8,missing=7
			7:[f1362<0.0671471804] yes=11,no=12,missing=11
				11:leaf=-0.0225723982
				12:leaf=0.101410531
			8:[f1042<0.0690931976] yes=13,no=14,missing=13
				13:leaf=0.0682674348
				14:[f998<0.0989848822] yes=15,no=16,missing=15
					15:[f740<0.236417383] yes=17,no=18,missing=17
						17:[f665<0.0510005057] yes=21,no=22,missing=21
							21:leaf=0.0212941766
							22:[f151<0.277438879] yes=27,no=28,missing=27
								27:[f944<0.173975736] yes=29,no=30,missing=29
									29:leaf=-0.123373628
									30:leaf=-0.0356422104
								28:leaf=-0.0173840579
						18:leaf=0.0196152963
					16:[f952<0.0894361585] yes=19,no=20,missing=19
						19:[f1384<0.0692626983] yes=23,no=24,missing=23
							23:leaf=-0.00936019141
							24:leaf=0.0936935246
						20:[f586<0.45301947] yes=25,no=26,missing=25
							25:leaf=-0.0946710706
							26:leaf=0.0358928964
		4:[f58<0.191645652] yes=9,no=10,missing=9
			9:leaf=-0.0265464783
			10:leaf=0.0987132266
	2:[f1505<0.041299209] yes=5,no=6,missing=5
		5:leaf=0.00286362413
		6:leaf=0.110532656
booster[9]:
0:[f131<0.474678963] yes=1,no=2,missing=1
	1:[f1270<0.303812087] yes=3,no=4,missing=3
		3:[f688<0.0944107175] yes=5,no=6,missing=5
			5:leaf=0.0603656322
			6:[f1170<0.073592782] yes=9,no=10,missing=9
				9:[f1027<0.159555137] yes=13,no=14,missing=13
					13:leaf=-0.0440614708
					14:leaf=0.0792589709
				10:[f1114<0.126581103] yes=15,no=16,missing=15
					15:leaf=0.0254946258
					16:[f379<0.252114952] yes=19,no=20,missing=19
						19:[f872<0.0273027588] yes=21,no=22,missing=21
							21:leaf=0.022246724
							22:[f597<0.387858748] yes=23,no=24,missing=23
								23:[f790<0.243429735] yes=25,no=26,missing=25
									25:[f101<0.0733917281] yes=27,no=28,missing=27
										27:leaf=-0.0194769744
										28:[f665<0.326295376] yes=29,no=30,missing=29
											29:[f70<0.160971195] yes=31,no=32,missing=31
												31:leaf=-0.0434370115
												32:leaf=-0.125223339
											30:leaf=-0.0314948298
									26:leaf=-0.00548065128
								24:leaf=0.0160646643
						20:leaf=0.0225914195
		4:[f373<0.111075342] yes=7,no=8,missing=7
			7:leaf=-0.0409940965
			8:[f882<0.193721578] yes=11,no=12,missing=11
				11:[f263<0.19407475] yes=17,no=18,missing=17
					17:leaf=0.0270902906
					18:leaf=0.118472703
				12:leaf=-0.0034866177
	2:leaf=0.101294838
booster[10]:
0:[f647<0.358729601] yes=1,no=2,missing=1
	1:[f699<0.0636054277] yes=3,no=4,missing=3
		3:[f585<0.220920652] yes=7,no=8,missing=7
			7:leaf=-0.0450534858
			8:[f247<0.113356017] yes=15,no=16,missing=15
				15:leaf=0.114811018
				16:leaf=0.0102405511
		4:[f1252<0.280485332] yes=9,no=10,missing=9
			9:[f989<0.117486969] yes=17,no=18,missing=17
				17:[f1453<0.0351074412] yes=21,no=22,missing=21
					21:[f465<0.150706112] yes=25,no=26,missing=25
						25:[f64<0.288079351] yes=33,no=34,missing=33
							33:leaf=0.000699782686
							34:leaf=-0.0904741436
						26:leaf=0.0575176962
					22:[f362<0.16171509] yes=27,no=28,missing=27
						27:[f1231<0.122318551] yes=35,no=36,missing=35
							35:leaf=-0.0410684422
							36:leaf=-0.122398622
						28:leaf=-0.0221799463
				18:[f934<0.0895609707] yes=23,no=24,missing=23
					23:[f625<0.272610664] yes=29,no=30,missing=29
						29:leaf=-0.0947127938
						30:leaf=0.00284062838
					24:[f56<0.268446773] yes=31,no=32,missing=31
						31:[f1217<0.270398319] yes=37,no=38,missing=37
							37:leaf=0.0153502477
							38:leaf=0.115301296
						32:leaf=-0.066202715
			10:leaf=0.0653420985
	2:[f755<0.212731689] yes=5,no=6,missing=5
		5:[f469<0.121529505] yes=11,no=12,missing=11
			11:leaf=-0.0574312843
			12:[f1363<0.181519389] yes=19,no=20,missing=19
				19:leaf=0.00600040844
				20:leaf=0.0920378268
		6:[f767<0.174794868] yes=13,no=14,missing=13
			13:leaf=0.00484862318
			14:leaf=0.105210379
booster[11]:
0:[f131<0.417828739] yes=1,no=2,missing=1
	1:[f704<0.203374669] yes=3,no=4,missing=3
		3:[f881<0.0869388878] yes=7,no=8,missing=7
			7:leaf=-0.00813593902
			8:[f534<0.226636037] yes=11,no=12,missing=11
				11:leaf=0.0232425258
				12:leaf=0.113228202
		4:[f394<0.122714475] yes=9,no=10,missing=9
			9:[f239<0.0165489484] yes=13,no=14,missing=13
				13:leaf=0.0290559977
				14:[f659<0.236670882] yes=17,no=18,missing=17
					17:[f553<0.0701625049] yes=23,no=24,missing=23
						23:leaf=0.00759043545
						24:[f1099<0.140513182] yes=29,no=30,missing=29
							29:leaf=-0.0109268222
							30:[f1413<0.192486301] yes=31,no=32,missing=31
								31:leaf=-0.111919142
								32:leaf=-0.0363214612
					18:leaf=0.0129545126
			10:[f724<0.154825702] yes=15,no=16,missing=15
				15:[f1526<0.103548422] yes=19,no=20,missing=19
					19:leaf=-0.00956945494
					20:[f760<0.18808195] yes=25,no=26,missing=25
						25:leaf=0.105797209
						26:leaf=0.0286337044
				16:[f1141<0.335231245] yes=21,no=22,missing=21
					21:[f1526<0.131433874] yes=27,no=28,missing=27
						27:leaf=-0.0968875065
						28:leaf=0.00864111539
					22:leaf=0.0481248349
	2:[f1127<0.244758397] yes=5,no=6,missing=5
		5:leaf=0.104721837
		6:leaf=0.0200434066
